<?xml version="1.0"?>
<opencv_storage>
<stage8>
  <maxWeakCount>5</maxWeakCount>
  <stageThreshold>-3.2371145486831665e-01</stageThreshold>
  <weakClassifiers>
    <_>
      <internalNodes>
        0 -1 14804 2.0002100616693497e-02</internalNodes>
      <leafValues>
        -3.1125828623771667e-01 9.1666668653488159e-01</leafValues></_>
    <_>
      <internalNodes>
        0 -1 22620 -6.6206199117004871e-03</internalNodes>
      <leafValues>
        7.0445996522903442e-01 -1.9709798693656921e-01</leafValues></_>
    <_>
      <internalNodes>
        0 -1 26699 1.7188459634780884e-02</internalNodes>
      <leafValues>
        -2.2698903083801270e-01 7.6367992162704468e-01</leafValues></_>
    <_>
      <internalNodes>
        0 -1 26964 -2.7365407440811396e-03</internalNodes>
      <leafValues>
        6.7176961898803711e-01 -2.8994208574295044e-01</leafValues></_>
    <_>
      <internalNodes>
        0 -1 27417 5.4777739569544792e-03</internalNodes>
      <leafValues>
        -1.9998206198215485e-01 9.0949386358261108e-01</leafValues></_></weakClassifiers></stage8>
</opencv_storage>
