<?xml version="1.0"?>
<opencv_storage>
<stage15>
  <maxWeakCount>7</maxWeakCount>
  <stageThreshold>-8.6950540542602539e-01</stageThreshold>
  <weakClassifiers>
    <_>
      <internalNodes>
        0 -1 30203 -1.6925638541579247e-02</internalNodes>
      <leafValues>
        3.9393940567970276e-01 -4.6788990497589111e-01</leafValues></_>
    <_>
      <internalNodes>
        0 -1 27827 1.9465463701635599e-03</internalNodes>
      <leafValues>
        -3.4276932477951050e-01 3.9681342244148254e-01</leafValues></_>
    <_>
      <internalNodes>
        0 -1 31092 9.0999656822532415e-04</internalNodes>
      <leafValues>
        -2.1213480830192566e-01 6.4354091882705688e-01</leafValues></_>
    <_>
      <internalNodes>
        0 -1 27241 5.7031423784792423e-04</internalNodes>
      <leafValues>
        -4.0130677819252014e-01 3.7485328316688538e-01</leafValues></_>
    <_>
      <internalNodes>
        0 -1 25377 -1.7172932624816895e-02</internalNodes>
      <leafValues>
        1.7041036486625671e-01 -8.7312281131744385e-01</leafValues></_>
    <_>
      <internalNodes>
        0 -1 1470 -1.0561102628707886e-01</internalNodes>
      <leafValues>
        -6.2216192483901978e-01 2.5018909573554993e-01</leafValues></_>
    <_>
      <internalNodes>
        0 -1 1198 1.0588907450437546e-01</internalNodes>
      <leafValues>
        1.5067121386528015e-01 -9.3340808153152466e-01</leafValues></_></weakClassifiers></stage15>
</opencv_storage>
