<?xml version="1.0"?>
<opencv_storage>
<stage5>
  <maxWeakCount>5</maxWeakCount>
  <stageThreshold>-6.4588421583175659e-01</stageThreshold>
  <weakClassifiers>
    <_>
      <internalNodes>
        0 -1 204 7.9078987240791321e-02</internalNodes>
      <leafValues>
        -5.8241760730743408e-01 3.3333334326744080e-01</leafValues></_>
    <_>
      <internalNodes>
        0 -1 29070 -3.4666312858462334e-03</internalNodes>
      <leafValues>
        5.6894034147262573e-01 -3.7693420052528381e-01</leafValues></_>
    <_>
      <internalNodes>
        0 -1 8416 -3.3914255909621716e-03</internalNodes>
      <leafValues>
        7.7294641733169556e-01 -2.7106082439422607e-01</leafValues></_>
    <_>
      <internalNodes>
        0 -1 11660 9.7933560609817505e-02</internalNodes>
      <leafValues>
        2.4133133888244629e-01 -9.5307266712188721e-01</leafValues></_>
    <_>
      <internalNodes>
        0 -1 29317 -2.3533187340945005e-03</internalNodes>
      <leafValues>
        -5.7255381345748901e-01 4.8865088820457458e-01</leafValues></_></weakClassifiers></stage5>
</opencv_storage>
