<?xml version="1.0"?>
<opencv_storage>
<stage9>
  <maxWeakCount>7</maxWeakCount>
  <stageThreshold>-3.7116596102714539e-01</stageThreshold>
  <weakClassifiers>
    <_>
      <internalNodes>
        0 -1 18624 -9.4064939767122269e-03</internalNodes>
      <leafValues>
        8.2608693838119507e-01 -2.8947368264198303e-01</leafValues></_>
    <_>
      <internalNodes>
        0 -1 27208 -3.3380252122879028e-01</internalNodes>
      <leafValues>
        -9.6053951978683472e-01 1.8017238378524780e-01</leafValues></_>
    <_>
      <internalNodes>
        0 -1 2224 7.5927590951323509e-03</internalNodes>
      <leafValues>
        -2.5950455665588379e-01 6.7475098371505737e-01</leafValues></_>
    <_>
      <internalNodes>
        0 -1 26316 6.1543867923319340e-04</internalNodes>
      <leafValues>
        -4.1347321867942810e-01 4.3835896253585815e-01</leafValues></_>
    <_>
      <internalNodes>
        0 -1 16497 4.2650802060961723e-03</internalNodes>
      <leafValues>
        -3.3885741233825684e-01 6.1631900072097778e-01</leafValues></_>
    <_>
      <internalNodes>
        0 -1 2471 -1.2668361887335777e-02</internalNodes>
      <leafValues>
        3.4379884600639343e-01 -5.7961875200271606e-01</leafValues></_>
    <_>
      <internalNodes>
        0 -1 17567 2.5289379991590977e-03</internalNodes>
      <leafValues>
        -3.5704433917999268e-01 4.7775709629058838e-01</leafValues></_></weakClassifiers></stage9>
</opencv_storage>
