<?xml version="1.0"?>
<opencv_storage>
<stage11>
  <maxWeakCount>5</maxWeakCount>
  <stageThreshold>-3.2833302021026611e-01</stageThreshold>
  <weakClassifiers>
    <_>
      <internalNodes>
        0 -1 29466 -6.1795525252819061e-03</internalNodes>
      <leafValues>
        8.7999999523162842e-02 -7.2000002861022949e-01</leafValues></_>
    <_>
      <internalNodes>
        0 -1 17968 -8.0095771700143814e-03</internalNodes>
      <leafValues>
        5.6929832696914673e-01 -2.6848307251930237e-01</leafValues></_>
    <_>
      <internalNodes>
        0 -1 8747 -5.5681243538856506e-03</internalNodes>
      <leafValues>
        8.7488031387329102e-01 -1.6366843879222870e-01</leafValues></_>
    <_>
      <internalNodes>
        0 -1 3388 7.9146539792418480e-04</internalNodes>
      <leafValues>
        3.1763419508934021e-01 -4.9472948908805847e-01</leafValues></_>
    <_>
      <internalNodes>
        0 -1 19107 6.9274781271815300e-03</internalNodes>
      <leafValues>
        -3.0181568861007690e-01 5.7793092727661133e-01</leafValues></_></weakClassifiers></stage11>
</opencv_storage>
