<?xml version="1.0"?>
<opencv_storage>
<stage13>
  <maxWeakCount>5</maxWeakCount>
  <stageThreshold>-5.6153255701065063e-01</stageThreshold>
  <weakClassifiers>
    <_>
      <internalNodes>
        0 -1 1151 1.2145872414112091e-01</internalNodes>
      <leafValues>
        -5.0980395078659058e-01 3.6986300349235535e-01</leafValues></_>
    <_>
      <internalNodes>
        0 -1 29656 5.7902128901332617e-04</internalNodes>
      <leafValues>
        -4.2818632721900940e-01 3.5635122656822205e-01</leafValues></_>
    <_>
      <internalNodes>
        0 -1 3884 5.3300198487704620e-05</internalNodes>
      <leafValues>
        3.1596702337265015e-01 -5.1103335618972778e-01</leafValues></_>
    <_>
      <internalNodes>
        0 -1 25464 1.0669796029105783e-03</internalNodes>
      <leafValues>
        -4.2507117986679077e-01 4.0729537606239319e-01</leafValues></_>
    <_>
      <internalNodes>
        0 -1 13109 -7.6237199828028679e-03</internalNodes>
      <leafValues>
        7.1471840143203735e-01 -2.9897570610046387e-01</leafValues></_></weakClassifiers></stage13>
</opencv_storage>
