<?xml version="1.0"?>
<opencv_storage>
<cascade>
  <stageType>BOOST</stageType>
  <featureType>HAAR</featureType>
  <height>16</height>
  <width>16</width>
  <stageParams>
    <boostType>GAB</boostType>
    <minHitRate>9.9500000476837158e-01</minHitRate>
    <maxFalseAlarm>5.0000000000000000e-01</maxFalseAlarm>
    <weightTrimRate>9.4999999999999996e-01</weightTrimRate>
    <maxDepth>1</maxDepth>
    <maxWeakCount>100</maxWeakCount></stageParams>
  <featureParams>
    <maxCatCount>0</maxCatCount>
    <featSize>1</featSize>
    <mode>BASIC</mode></featureParams>
  <stageNum>16</stageNum>
  <stages>
    <!-- stage 0 -->
    <_>
      <maxWeakCount>1</maxWeakCount>
      <stageThreshold>1.</stageThreshold>
      <weakClassifiers>
        <_>
          <internalNodes>
            0 -1 1 -1.5853962302207947e-01</internalNodes>
          <leafValues>
            -1. 1.</leafValues></_></weakClassifiers></_>
    <!-- stage 1 -->
    <_>
      <maxWeakCount>2</maxWeakCount>
      <stageThreshold>-4.9181172251701355e-01</stageThreshold>
      <weakClassifiers>
        <_>
          <internalNodes>
            0 -1 41 3.8977372460067272e-03</internalNodes>
          <leafValues>
            -8.5826772451400757e-01 4.6987950801849365e-01</leafValues></_>
        <_>
          <internalNodes>
            0 -1 18 -9.3866437673568726e-02</internalNodes>
          <leafValues>
            3.6645597219467163e-01 -9.1849368810653687e-01</leafValues></_></weakClassifiers></_>
    <!-- stage 2 -->
    <_>
      <maxWeakCount>5</maxWeakCount>
      <stageThreshold>-3.4803780913352966e-01</stageThreshold>
      <weakClassifiers>
        <_>
          <internalNodes>
            0 -1 16 -1.3012003898620605e-01</internalNodes>
          <leafValues>
            -6.9127517938613892e-01 5.4098361730575562e-01</leafValues></_>
        <_>
          <internalNodes>
            0 -1 14 -1.0937936604022980e-03</internalNodes>
          <leafValues>
            3.5837283730506897e-01 -6.7312663793563843e-01</leafValues></_>
        <_>
          <internalNodes>
            0 -1 13 3.3992291428148746e-03</internalNodes>
          <leafValues>
            -7.9636806249618530e-01 3.0594950914382935e-01</leafValues></_>
        <_>
          <internalNodes>
            0 -1 65 -4.5734276063740253e-03</internalNodes>
          <leafValues>
            3.1500324606895447e-01 -8.4246093034744263e-01</leafValues></_>
        <_>
          <internalNodes>
            0 -1 55 1.3387808576226234e-03</internalNodes>
          <leafValues>
            -5.9181934595108032e-01 5.2137595415115356e-01</leafValues></_></weakClassifiers></_>
    <!-- stage 3 -->
    <_>
      <maxWeakCount>4</maxWeakCount>
      <stageThreshold>-7.1931481361389160e-01</stageThreshold>
      <weakClassifiers>
        <_>
          <internalNodes>
            0 -1 19 1.4122584834694862e-02</internalNodes>
          <leafValues>
            -5.2542370557785034e-01 6.9696968793869019e-01</leafValues></_>
        <_>
          <internalNodes>
            0 -1 9 -9.6422210335731506e-02</internalNodes>
          <leafValues>
            -8.4564220905303955e-01 2.4555575847625732e-01</leafValues></_>
        <_>
          <internalNodes>
            0 -1 76 -1.1767147108912468e-02</internalNodes>
          <leafValues>
            1.7274576425552368e-01 -8.6225044727325439e-01</leafValues></_>
        <_>
          <internalNodes>
            0 -1 46 -4.9308009445667267e-02</internalNodes>
          <leafValues>
            4.7900539636611938e-01 -3.9069285988807678e-01</leafValues></_></weakClassifiers></_>
    <!-- stage 4 -->
    <_>
      <maxWeakCount>4</maxWeakCount>
      <stageThreshold>-6.0893136262893677e-01</stageThreshold>
      <weakClassifiers>
        <_>
          <internalNodes>
            0 -1 36 -2.9380138963460922e-02</internalNodes>
          <leafValues>
            7.2972971200942993e-01 -5.6069362163543701e-01</leafValues></_>
        <_>
          <internalNodes>
            0 -1 61 -5.4995378013700247e-04</internalNodes>
          <leafValues>
            2.5847396254539490e-01 -7.5620639324188232e-01</leafValues></_>
        <_>
          <internalNodes>
            0 -1 35 -2.4662699550390244e-02</internalNodes>
          <leafValues>
            -4.3100273609161377e-01 5.5347299575805664e-01</leafValues></_>
        <_>
          <internalNodes>
            0 -1 66 -2.8775529935956001e-03</internalNodes>
          <leafValues>
            2.5142577290534973e-01 -8.6018466949462891e-01</leafValues></_></weakClassifiers></_>
    <!-- stage 5 -->
    <_>
      <maxWeakCount>7</maxWeakCount>
      <stageThreshold>-8.2110124826431274e-01</stageThreshold>
      <weakClassifiers>
        <_>
          <internalNodes>
            0 -1 25 7.9654529690742493e-02</internalNodes>
          <leafValues>
            -7.1428573131561279e-01 1.6483516991138458e-01</leafValues></_>
        <_>
          <internalNodes>
            0 -1 38 -2.3517364752478898e-04</internalNodes>
          <leafValues>
            6.1578661203384399e-01 -3.1845054030418396e-01</leafValues></_>
        <_>
          <internalNodes>
            0 -1 63 -2.6643750607036054e-04</internalNodes>
          <leafValues>
            4.3570291996002197e-01 -3.9242029190063477e-01</leafValues></_>
        <_>
          <internalNodes>
            0 -1 37 -1.3828408555127680e-04</internalNodes>
          <leafValues>
            3.5278379917144775e-01 -5.3606402873992920e-01</leafValues></_>
        <_>
          <internalNodes>
            0 -1 8 1.6794621944427490e-02</internalNodes>
          <leafValues>
            -1.8876124918460846e-01 9.3782824277877808e-01</leafValues></_>
        <_>
          <internalNodes>
            0 -1 71 5.0950344302691519e-05</internalNodes>
          <leafValues>
            2.6205009222030640e-01 -7.9043924808502197e-01</leafValues></_>
        <_>
          <internalNodes>
            0 -1 50 1.9240078108850867e-04</internalNodes>
          <leafValues>
            -4.9989044666290283e-01 3.5695943236351013e-01</leafValues></_></weakClassifiers></_>
    <!-- stage 6 -->
    <_>
      <maxWeakCount>3</maxWeakCount>
      <stageThreshold>-2.3761586844921112e-01</stageThreshold>
      <weakClassifiers>
        <_>
          <internalNodes>
            0 -1 20 -2.5457199662923813e-02</internalNodes>
          <leafValues>
            -5.7961785793304443e-01 3.9622640609741211e-01</leafValues></_>
        <_>
          <internalNodes>
            0 -1 74 1.0442700237035751e-02</internalNodes>
          <leafValues>
            1.5508311986923218e-01 -1.</leafValues></_>
        <_>
          <internalNodes>
            0 -1 31 -3.2992511987686157e-02</internalNodes>
          <leafValues>
            -7.8016853332519531e-01 1.8691883981227875e-01</leafValues></_></weakClassifiers></_>
    <!-- stage 7 -->
    <_>
      <maxWeakCount>7</maxWeakCount>
      <stageThreshold>-1.1262869834899902e+00</stageThreshold>
      <weakClassifiers>
        <_>
          <internalNodes>
            0 -1 22 2.3267857613973320e-04</internalNodes>
          <leafValues>
            -5.9722220897674561e-01 2.4242424964904785e-01</leafValues></_>
        <_>
          <internalNodes>
            0 -1 70 -2.4831778137013316e-04</internalNodes>
          <leafValues>
            3.1513878703117371e-01 -4.6518981456756592e-01</leafValues></_>
        <_>
          <internalNodes>
            0 -1 4 -1.2973405420780182e-02</internalNodes>
          <leafValues>
            -9.5430833101272583e-01 1.5649805963039398e-01</leafValues></_>
        <_>
          <internalNodes>
            0 -1 73 -2.6892314781434834e-04</internalNodes>
          <leafValues>
            5.0011211633682251e-01 -3.1182843446731567e-01</leafValues></_>
        <_>
          <internalNodes>
            0 -1 45 1.4395249309018254e-03</internalNodes>
          <leafValues>
            -2.8759092092514038e-01 5.7228702306747437e-01</leafValues></_>
        <_>
          <internalNodes>
            0 -1 21 -1.9344329833984375e-01</internalNodes>
          <leafValues>
            8.4440004825592041e-01 -2.2301906347274780e-01</leafValues></_>
        <_>
          <internalNodes>
            0 -1 67 -1.9435575231909752e-03</internalNodes>
          <leafValues>
            6.2932479381561279e-01 -2.5781252980232239e-01</leafValues></_></weakClassifiers></_>
    <!-- stage 8 -->
    <_>
      <maxWeakCount>5</maxWeakCount>
      <stageThreshold>-1.3983795642852783e+00</stageThreshold>
      <weakClassifiers>
        <_>
          <internalNodes>
            0 -1 29 2.4215545272454619e-04</internalNodes>
          <leafValues>
            -6.4516127109527588e-01 1.1627907305955887e-01</leafValues></_>
        <_>
          <internalNodes>
            0 -1 10 9.1663736384361982e-04</internalNodes>
          <leafValues>
            -4.3561229109764099e-01 3.7816408276557922e-01</leafValues></_>
        <_>
          <internalNodes>
            0 -1 17 3.6760891089215875e-04</internalNodes>
          <leafValues>
            -2.5894209742546082e-01 6.2722450494766235e-01</leafValues></_>
        <_>
          <internalNodes>
            0 -1 33 2.5110269780270755e-04</internalNodes>
          <leafValues>
            -5.3580844402313232e-01 3.4270316362380981e-01</leafValues></_>
        <_>
          <internalNodes>
            0 -1 39 -3.6547699710354209e-04</internalNodes>
          <leafValues>
            4.7360166907310486e-01 -4.0902212262153625e-01</leafValues></_></weakClassifiers></_>
    <!-- stage 9 -->
    <_>
      <maxWeakCount>5</maxWeakCount>
      <stageThreshold>-1.0432798862457275e+00</stageThreshold>
      <weakClassifiers>
        <_>
          <internalNodes>
            0 -1 47 -3.1985603272914886e-02</internalNodes>
          <leafValues>
            -6.2500000000000000e-01 3.0303031206130981e-01</leafValues></_>
        <_>
          <internalNodes>
            0 -1 51 -7.6171860098838806e-02</internalNodes>
          <leafValues>
            6.0566067695617676e-01 -3.9962133765220642e-01</leafValues></_>
        <_>
          <internalNodes>
            0 -1 26 -3.7167646223679185e-04</internalNodes>
          <leafValues>
            4.1684642434120178e-01 -4.2516207695007324e-01</leafValues></_>
        <_>
          <internalNodes>
            0 -1 34 -9.6117351204156876e-03</internalNodes>
          <leafValues>
            -7.6227551698684692e-01 2.1233284473419189e-01</leafValues></_>
        <_>
          <internalNodes>
            0 -1 56 -4.9099815078079700e-03</internalNodes>
          <leafValues>
            1.9417069852352142e-01 -7.6630496978759766e-01</leafValues></_></weakClassifiers></_>
    <!-- stage 10 -->
    <_>
      <maxWeakCount>6</maxWeakCount>
      <stageThreshold>-5.2557778358459473e-01</stageThreshold>
      <weakClassifiers>
        <_>
          <internalNodes>
            0 -1 49 1.3139517046511173e-02</internalNodes>
          <leafValues>
            -3.7142857909202576e-01 7.3333334922790527e-01</leafValues></_>
        <_>
          <internalNodes>
            0 -1 58 -3.2903529703617096e-02</internalNodes>
          <leafValues>
            -7.3902171850204468e-01 2.2442656755447388e-01</leafValues></_>
        <_>
          <internalNodes>
            0 -1 75 -8.4058633074164391e-03</internalNodes>
          <leafValues>
            1.4814762771129608e-01 -9.0192002058029175e-01</leafValues></_>
        <_>
          <internalNodes>
            0 -1 59 1.3141941744834185e-03</internalNodes>
          <leafValues>
            -3.6708313226699829e-01 4.4495198130607605e-01</leafValues></_>
        <_>
          <internalNodes>
            0 -1 7 7.6428416650742292e-04</internalNodes>
          <leafValues>
            -4.5299902558326721e-01 4.6844187378883362e-01</leafValues></_>
        <_>
          <internalNodes>
            0 -1 53 -1.8854063004255295e-02</internalNodes>
          <leafValues>
            -4.0179508924484253e-01 4.4477191567420959e-01</leafValues></_></weakClassifiers></_>
    <!-- stage 11 -->
    <_>
      <maxWeakCount>5</maxWeakCount>
      <stageThreshold>-3.1413486599922180e-01</stageThreshold>
      <weakClassifiers>
        <_>
          <internalNodes>
            0 -1 68 -2.5379801169037819e-02</internalNodes>
          <leafValues>
            -5.8762884140014648e-01 3.6986300349235535e-01</leafValues></_>
        <_>
          <internalNodes>
            0 -1 6 -3.0662372708320618e-02</internalNodes>
          <leafValues>
            5.4104048013687134e-01 -3.9759621024131775e-01</leafValues></_>
        <_>
          <internalNodes>
            0 -1 5 1.0873357532545924e-03</internalNodes>
          <leafValues>
            -3.4214231371879578e-01 5.5392521619796753e-01</leafValues></_>
        <_>
          <internalNodes>
            0 -1 27 3.2189299236051738e-04</internalNodes>
          <leafValues>
            -4.1708880662918091e-01 5.1161706447601318e-01</leafValues></_>
        <_>
          <internalNodes>
            0 -1 32 5.2803447470068932e-03</internalNodes>
          <leafValues>
            -3.8144367933273315e-01 5.3425377607345581e-01</leafValues></_></weakClassifiers></_>
    <!-- stage 12 -->
    <_>
      <maxWeakCount>5</maxWeakCount>
      <stageThreshold>-5.3480041027069092e-01</stageThreshold>
      <weakClassifiers>
        <_>
          <internalNodes>
            0 -1 48 -2.9672943055629730e-02</internalNodes>
          <leafValues>
            -4.2857143282890320e-01 4.1176471114158630e-01</leafValues></_>
        <_>
          <internalNodes>
            0 -1 72 -9.9055878818035126e-03</internalNodes>
          <leafValues>
            1.2095719575881958e-01 -1.</leafValues></_>
        <_>
          <internalNodes>
            0 -1 69 3.4511152189224958e-03</internalNodes>
          <leafValues>
            1.7767813801765442e-01 -7.9358637332916260e-01</leafValues></_>
        <_>
          <internalNodes>
            0 -1 64 -1.4612211380153894e-03</internalNodes>
          <leafValues>
            2.0316852629184723e-01 -5.8901226520538330e-01</leafValues></_>
        <_>
          <internalNodes>
            0 -1 24 -1.9881855696439743e-03</internalNodes>
          <leafValues>
            4.4669800996780396e-01 -4.7710448503494263e-01</leafValues></_></weakClassifiers></_>
    <!-- stage 13 -->
    <_>
      <maxWeakCount>7</maxWeakCount>
      <stageThreshold>-2.8309589624404907e-01</stageThreshold>
      <weakClassifiers>
        <_>
          <internalNodes>
            0 -1 44 -8.4633946418762207e-02</internalNodes>
          <leafValues>
            -3.2885906100273132e-01 9.0476191043853760e-01</leafValues></_>
        <_>
          <internalNodes>
            0 -1 60 5.7185664772987366e-02</internalNodes>
          <leafValues>
            2.6353135704994202e-01 -6.4008641242980957e-01</leafValues></_>
        <_>
          <internalNodes>
            0 -1 52 -3.3399116247892380e-02</internalNodes>
          <leafValues>
            7.6859539747238159e-01 -2.9267162084579468e-01</leafValues></_>
        <_>
          <internalNodes>
            0 -1 12 -1.1789380759000778e-01</internalNodes>
          <leafValues>
            -3.9267909526824951e-01 5.2485084533691406e-01</leafValues></_>
        <_>
          <internalNodes>
            0 -1 2 4.1747903451323509e-03</internalNodes>
          <leafValues>
            -5.3275185823440552e-01 3.4580674767494202e-01</leafValues></_>
        <_>
          <internalNodes>
            0 -1 78 -2.8184615075588226e-04</internalNodes>
          <leafValues>
            5.3576600551605225e-01 -3.5591411590576172e-01</leafValues></_>
        <_>
          <internalNodes>
            0 -1 40 -3.7222560495138168e-02</internalNodes>
          <leafValues>
            -4.1399025917053223e-01 5.9052515029907227e-01</leafValues></_></weakClassifiers></_>
    <!-- stage 14 -->
    <_>
      <maxWeakCount>7</maxWeakCount>
      <stageThreshold>-3.6707264184951782e-01</stageThreshold>
      <weakClassifiers>
        <_>
          <internalNodes>
            0 -1 77 7.1511196438223124e-04</internalNodes>
          <leafValues>
            -4.2608696222305298e-01 3.4545454382896423e-01</leafValues></_>
        <_>
          <internalNodes>
            0 -1 3 7.8208290040493011e-02</internalNodes>
          <leafValues>
            1.3549995422363281e-01 -8.7720376253128052e-01</leafValues></_>
        <_>
          <internalNodes>
            0 -1 43 -3.7420116364955902e-02</internalNodes>
          <leafValues>
            -2.9125401377677917e-01 5.4902005195617676e-01</leafValues></_>
        <_>
          <internalNodes>
            0 -1 0 -7.0343485276680440e-05</internalNodes>
          <leafValues>
            -6.1340296268463135e-01 2.1762606501579285e-01</leafValues></_>
        <_>
          <internalNodes>
            0 -1 23 -1.3671908527612686e-02</internalNodes>
          <leafValues>
            6.5940970182418823e-01 -2.1964836120605469e-01</leafValues></_>
        <_>
          <internalNodes>
            0 -1 57 3.9649731479585171e-04</internalNodes>
          <leafValues>
            -2.6902902126312256e-01 5.2230632305145264e-01</leafValues></_>
        <_>
          <internalNodes>
            0 -1 42 -7.9767336137592793e-04</internalNodes>
          <leafValues>
            5.8745628595352173e-01 -2.4602806568145752e-01</leafValues></_></weakClassifiers></_>
    <!-- stage 15 -->
    <_>
      <maxWeakCount>6</maxWeakCount>
      <stageThreshold>-9.6035033464431763e-01</stageThreshold>
      <weakClassifiers>
        <_>
          <internalNodes>
            0 -1 30 -2.1900177001953125e-02</internalNodes>
          <leafValues>
            -3.7681159377098083e-01 6.8750000000000000e-01</leafValues></_>
        <_>
          <internalNodes>
            0 -1 28 1.0674312710762024e-02</internalNodes>
          <leafValues>
            2.3126974701881409e-01 -8.1649398803710938e-01</leafValues></_>
        <_>
          <internalNodes>
            0 -1 15 -1.7360558267682791e-03</internalNodes>
          <leafValues>
            3.1832575798034668e-01 -5.2832502126693726e-01</leafValues></_>
        <_>
          <internalNodes>
            0 -1 11 4.8273788706865162e-05</internalNodes>
          <leafValues>
            4.8044165968894958e-01 -3.7422531843185425e-01</leafValues></_>
        <_>
          <internalNodes>
            0 -1 54 2.0271677931305021e-04</internalNodes>
          <leafValues>
            -2.8445649147033691e-01 7.0252501964569092e-01</leafValues></_>
        <_>
          <internalNodes>
            0 -1 62 -1.3769253855571151e-03</internalNodes>
          <leafValues>
            4.6105214953422546e-01 -4.9901649355888367e-01</leafValues></_></weakClassifiers></_></stages>
  <features>
    <_>
      <rects>
        <_>
          0 0 2 4 -1.</_>
        <_>
          1 0 1 4 2.</_></rects>
      <tilted>0</tilted></_>
    <_>
      <rects>
        <_>
          0 0 3 15 -1.</_>
        <_>
          1 0 1 15 2.</_></rects>
      <tilted>0</tilted></_>
    <_>
      <rects>
        <_>
          0 0 6 5 -1.</_>
        <_>
          3 0 3 5 2.</_></rects>
      <tilted>0</tilted></_>
    <_>
      <rects>
        <_>
          0 0 6 16 -1.</_>
        <_>
          0 8 6 8 2.</_></rects>
      <tilted>0</tilted></_>
    <_>
      <rects>
        <_>
          0 0 12 4 -1.</_>
        <_>
          0 2 12 2 2.</_></rects>
      <tilted>0</tilted></_>
    <_>
      <rects>
        <_>
          0 1 6 2 -1.</_>
        <_>
          0 1 3 1 2.</_>
        <_>
          3 2 3 1 2.</_></rects>
      <tilted>0</tilted></_>
    <_>
      <rects>
        <_>
          0 4 14 6 -1.</_>
        <_>
          0 4 7 3 2.</_>
        <_>
          7 7 7 3 2.</_></rects>
      <tilted>0</tilted></_>
    <_>
      <rects>
        <_>
          0 5 2 11 -1.</_>
        <_>
          1 5 1 11 2.</_></rects>
      <tilted>0</tilted></_>
    <_>
      <rects>
        <_>
          0 8 12 2 -1.</_>
        <_>
          4 8 4 2 2.</_></rects>
      <tilted>0</tilted></_>
    <_>
      <rects>
        <_>
          0 13 15 3 -1.</_>
        <_>
          0 14 15 1 2.</_></rects>
      <tilted>0</tilted></_>
    <_>
      <rects>
        <_>
          0 14 8 1 -1.</_>
        <_>
          4 14 4 1 2.</_></rects>
      <tilted>0</tilted></_>
    <_>
      <rects>
        <_>
          1 0 2 3 -1.</_>
        <_>
          2 0 1 3 2.</_></rects>
      <tilted>0</tilted></_>
    <_>
      <rects>
        <_>
          1 5 6 8 -1.</_>
        <_>
          3 5 2 8 2.</_></rects>
      <tilted>0</tilted></_>
    <_>
      <rects>
        <_>
          1 7 6 2 -1.</_>
        <_>
          4 7 3 2 2.</_></rects>
      <tilted>0</tilted></_>
    <_>
      <rects>
        <_>
          1 8 1 8 -1.</_>
        <_>
          1 12 1 4 2.</_></rects>
      <tilted>0</tilted></_>
    <_>
      <rects>
        <_>
          1 10 2 6 -1.</_>
        <_>
          1 13 2 3 2.</_></rects>
      <tilted>0</tilted></_>
    <_>
      <rects>
        <_>
          2 2 12 13 -1.</_>
        <_>
          6 2 4 13 2.</_></rects>
      <tilted>0</tilted></_>
    <_>
      <rects>
        <_>
          2 4 1 2 -1.</_>
        <_>
          2 5 1 1 2.</_></rects>
      <tilted>0</tilted></_>
    <_>
      <rects>
        <_>
          2 6 10 10 -1.</_>
        <_>
          2 11 10 5 2.</_></rects>
      <tilted>0</tilted></_>
    <_>
      <rects>
        <_>
          2 8 12 1 -1.</_>
        <_>
          6 8 4 1 2.</_></rects>
      <tilted>0</tilted></_>
    <_>
      <rects>
        <_>
          2 8 12 5 -1.</_>
        <_>
          6 8 4 5 2.</_></rects>
      <tilted>0</tilted></_>
    <_>
      <rects>
        <_>
          3 2 8 14 -1.</_>
        <_>
          3 2 4 7 2.</_>
        <_>
          7 9 4 7 2.</_></rects>
      <tilted>0</tilted></_>
    <_>
      <rects>
        <_>
          3 4 1 2 -1.</_>
        <_>
          3 5 1 1 2.</_></rects>
      <tilted>0</tilted></_>
    <_>
      <rects>
        <_>
          3 4 12 2 -1.</_>
        <_>
          3 4 6 1 2.</_>
        <_>
          9 5 6 1 2.</_></rects>
      <tilted>0</tilted></_>
    <_>
      <rects>
        <_>
          3 5 1 8 -1.</_>
        <_>
          3 9 1 4 2.</_></rects>
      <tilted>0</tilted></_>
    <_>
      <rects>
        <_>
          3 5 6 9 -1.</_>
        <_>
          6 5 3 9 2.</_></rects>
      <tilted>0</tilted></_>
    <_>
      <rects>
        <_>
          3 8 2 2 -1.</_>
        <_>
          3 9 2 1 2.</_></rects>
      <tilted>0</tilted></_>
    <_>
      <rects>
        <_>
          3 10 2 1 -1.</_>
        <_>
          4 10 1 1 2.</_></rects>
      <tilted>0</tilted></_>
    <_>
      <rects>
        <_>
          4 1 2 4 -1.</_>
        <_>
          4 3 2 2 2.</_></rects>
      <tilted>0</tilted></_>
    <_>
      <rects>
        <_>
          4 2 2 1 -1.</_>
        <_>
          5 2 1 1 2.</_></rects>
      <tilted>0</tilted></_>
    <_>
      <rects>
        <_>
          4 9 6 4 -1.</_>
        <_>
          6 9 2 4 2.</_></rects>
      <tilted>0</tilted></_>
    <_>
      <rects>
        <_>
          4 12 12 2 -1.</_>
        <_>
          10 12 6 2 2.</_></rects>
      <tilted>0</tilted></_>
    <_>
      <rects>
        <_>
          4 12 12 4 -1.</_>
        <_>
          4 12 6 2 2.</_>
        <_>
          10 14 6 2 2.</_></rects>
      <tilted>0</tilted></_>
    <_>
      <rects>
        <_>
          5 0 3 2 -1.</_>
        <_>
          5 1 3 1 2.</_></rects>
      <tilted>0</tilted></_>
    <_>
      <rects>
        <_>
          5 1 1 3 -1.</_>
        <_>
          5 2 1 1 2.</_></rects>
      <tilted>0</tilted></_>
    <_>
      <rects>
        <_>
          5 3 6 2 -1.</_>
        <_>
          7 3 2 2 2.</_></rects>
      <tilted>0</tilted></_>
    <_>
      <rects>
        <_>
          5 7 4 6 -1.</_>
        <_>
          5 7 2 3 2.</_>
        <_>
          7 10 2 3 2.</_></rects>
      <tilted>0</tilted></_>
    <_>
      <rects>
        <_>
          5 11 1 2 -1.</_>
        <_>
          5 12 1 1 2.</_></rects>
      <tilted>0</tilted></_>
    <_>
      <rects>
        <_>
          5 13 2 1 -1.</_>
        <_>
          6 13 1 1 2.</_></rects>
      <tilted>0</tilted></_>
    <_>
      <rects>
        <_>
          5 13 1 2 -1.</_>
        <_>
          5 14 1 1 2.</_></rects>
      <tilted>0</tilted></_>
    <_>
      <rects>
        <_>
          6 0 6 4 -1.</_>
        <_>
          8 0 2 4 2.</_></rects>
      <tilted>0</tilted></_>
    <_>
      <rects>
        <_>
          6 0 3 6 -1.</_>
        <_>
          6 3 3 3 2.</_></rects>
      <tilted>0</tilted></_>
    <_>
      <rects>
        <_>
          6 2 2 2 -1.</_>
        <_>
          6 2 1 1 2.</_>
        <_>
          7 3 1 1 2.</_></rects>
      <tilted>0</tilted></_>
    <_>
      <rects>
        <_>
          6 2 6 4 -1.</_>
        <_>
          8 2 2 4 2.</_></rects>
      <tilted>0</tilted></_>
    <_>
      <rects>
        <_>
          6 2 9 9 -1.</_>
        <_>
          6 5 9 3 2.</_></rects>
      <tilted>0</tilted></_>
    <_>
      <rects>
        <_>
          6 6 2 2 -1.</_>
        <_>
          6 6 1 1 2.</_>
        <_>
          7 7 1 1 2.</_></rects>
      <tilted>0</tilted></_>
    <_>
      <rects>
        <_>
          7 0 4 12 -1.</_>
        <_>
          9 0 2 12 2.</_></rects>
      <tilted>0</tilted></_>
    <_>
      <rects>
        <_>
          7 1 6 3 -1.</_>
        <_>
          9 1 2 3 2.</_></rects>
      <tilted>0</tilted></_>
    <_>
      <rects>
        <_>
          7 2 6 3 -1.</_>
        <_>
          9 2 2 3 2.</_></rects>
      <tilted>0</tilted></_>
    <_>
      <rects>
        <_>
          7 4 2 12 -1.</_>
        <_>
          7 4 1 6 2.</_>
        <_>
          8 10 1 6 2.</_></rects>
      <tilted>0</tilted></_>
    <_>
      <rects>
        <_>
          7 4 2 2 -1.</_>
        <_>
          7 5 2 1 2.</_></rects>
      <tilted>0</tilted></_>
    <_>
      <rects>
        <_>
          7 5 9 2 -1.</_>
        <_>
          10 5 3 2 2.</_></rects>
      <tilted>0</tilted></_>
    <_>
      <rects>
        <_>
          7 6 3 2 -1.</_>
        <_>
          8 6 1 2 2.</_></rects>
      <tilted>0</tilted></_>
    <_>
      <rects>
        <_>
          7 7 1 6 -1.</_>
        <_>
          7 9 1 2 2.</_></rects>
      <tilted>0</tilted></_>
    <_>
      <rects>
        <_>
          8 0 2 1 -1.</_>
        <_>
          9 0 1 1 2.</_></rects>
      <tilted>0</tilted></_>
    <_>
      <rects>
        <_>
          8 1 1 4 -1.</_>
        <_>
          8 3 1 2 2.</_></rects>
      <tilted>0</tilted></_>
    <_>
      <rects>
        <_>
          8 8 4 4 -1.</_>
        <_>
          8 10 4 2 2.</_></rects>
      <tilted>0</tilted></_>
    <_>
      <rects>
        <_>
          9 3 2 2 -1.</_>
        <_>
          9 3 1 1 2.</_>
        <_>
          10 4 1 1 2.</_></rects>
      <tilted>0</tilted></_>
    <_>
      <rects>
        <_>
          10 0 4 8 -1.</_>
        <_>
          10 4 4 4 2.</_></rects>
      <tilted>0</tilted></_>
    <_>
      <rects>
        <_>
          10 2 6 2 -1.</_>
        <_>
          10 3 6 1 2.</_></rects>
      <tilted>0</tilted></_>
    <_>
      <rects>
        <_>
          10 4 6 12 -1.</_>
        <_>
          10 4 3 6 2.</_>
        <_>
          13 10 3 6 2.</_></rects>
      <tilted>0</tilted></_>
    <_>
      <rects>
        <_>
          10 5 6 1 -1.</_>
        <_>
          13 5 3 1 2.</_></rects>
      <tilted>0</tilted></_>
    <_>
      <rects>
        <_>
          10 9 2 3 -1.</_>
        <_>
          11 9 1 3 2.</_></rects>
      <tilted>0</tilted></_>
    <_>
      <rects>
        <_>
          11 3 2 1 -1.</_>
        <_>
          12 3 1 1 2.</_></rects>
      <tilted>0</tilted></_>
    <_>
      <rects>
        <_>
          11 3 2 10 -1.</_>
        <_>
          12 3 1 10 2.</_></rects>
      <tilted>0</tilted></_>
    <_>
      <rects>
        <_>
          11 6 4 10 -1.</_>
        <_>
          11 11 4 5 2.</_></rects>
      <tilted>0</tilted></_>
    <_>
      <rects>
        <_>
          11 8 2 8 -1.</_>
        <_>
          11 12 2 4 2.</_></rects>
      <tilted>0</tilted></_>
    <_>
      <rects>
        <_>
          11 12 4 3 -1.</_>
        <_>
          13 12 2 3 2.</_></rects>
      <tilted>0</tilted></_>
    <_>
      <rects>
        <_>
          12 0 3 5 -1.</_>
        <_>
          13 0 1 5 2.</_></rects>
      <tilted>0</tilted></_>
    <_>
      <rects>
        <_>
          12 5 2 4 -1.</_>
        <_>
          12 5 1 2 2.</_>
        <_>
          13 7 1 2 2.</_></rects>
      <tilted>0</tilted></_>
    <_>
      <rects>
        <_>
          12 10 1 2 -1.</_>
        <_>
          12 11 1 1 2.</_></rects>
      <tilted>0</tilted></_>
    <_>
      <rects>
        <_>
          12 12 2 4 -1.</_>
        <_>
          12 14 2 2 2.</_></rects>
      <tilted>0</tilted></_>
    <_>
      <rects>
        <_>
          13 6 2 9 -1.</_>
        <_>
          13 9 2 3 2.</_></rects>
      <tilted>0</tilted></_>
    <_>
      <rects>
        <_>
          13 7 1 2 -1.</_>
        <_>
          13 8 1 1 2.</_></rects>
      <tilted>0</tilted></_>
    <_>
      <rects>
        <_>
          14 0 2 8 -1.</_>
        <_>
          14 4 2 4 2.</_></rects>
      <tilted>0</tilted></_>
    <_>
      <rects>
        <_>
          14 2 2 6 -1.</_>
        <_>
          14 4 2 2 2.</_></rects>
      <tilted>0</tilted></_>
    <_>
      <rects>
        <_>
          14 7 2 9 -1.</_>
        <_>
          14 10 2 3 2.</_></rects>
      <tilted>0</tilted></_>
    <_>
      <rects>
        <_>
          14 11 2 4 -1.</_>
        <_>
          14 11 1 2 2.</_>
        <_>
          15 13 1 2 2.</_></rects>
      <tilted>0</tilted></_>
    <_>
      <rects>
        <_>
          15 10 1 2 -1.</_>
        <_>
          15 11 1 1 2.</_></rects>
      <tilted>0</tilted></_></features></cascade>
</opencv_storage>
