<?xml version="1.0"?>
<opencv_storage>
<stage2>
  <maxWeakCount>5</maxWeakCount>
  <stageThreshold>-3.4803780913352966e-01</stageThreshold>
  <weakClassifiers>
    <_>
      <internalNodes>
        0 -1 8561 -1.3012003898620605e-01</internalNodes>
      <leafValues>
        -6.9127517938613892e-01 5.4098361730575562e-01</leafValues></_>
    <_>
      <internalNodes>
        0 -1 6680 -1.0937936604022980e-03</internalNodes>
      <leafValues>
        3.5837283730506897e-01 -6.7312663793563843e-01</leafValues></_>
    <_>
      <internalNodes>
        0 -1 6487 3.3992291428148746e-03</internalNodes>
      <leafValues>
        -7.9636806249618530e-01 3.0594950914382935e-01</leafValues></_>
    <_>
      <internalNodes>
        0 -1 29928 -4.5734276063740253e-03</internalNodes>
      <leafValues>
        3.1500324606895447e-01 -8.4246093034744263e-01</leafValues></_>
    <_>
      <internalNodes>
        0 -1 24454 1.3387808576226234e-03</internalNodes>
      <leafValues>
        -5.9181934595108032e-01 5.2137595415115356e-01</leafValues></_></weakClassifiers></stage2>
</opencv_storage>
