<?xml version="1.0"?>
<opencv_storage>
<stage9>
  <maxWeakCount>5</maxWeakCount>
  <stageThreshold>-1.0432798862457275e+00</stageThreshold>
  <weakClassifiers>
    <_>
      <internalNodes>
        0 -1 22394 -3.1985603272914886e-02</internalNodes>
      <leafValues>
        -6.2500000000000000e-01 3.0303031206130981e-01</leafValues></_>
    <_>
      <internalNodes>
        0 -1 23279 -7.6171860098838806e-02</internalNodes>
      <leafValues>
        6.0566067695617676e-01 -3.9962133765220642e-01</leafValues></_>
    <_>
      <internalNodes>
        0 -1 13326 -3.7167646223679185e-04</internalNodes>
      <leafValues>
        4.1684642434120178e-01 -4.2516207695007324e-01</leafValues></_>
    <_>
      <internalNodes>
        0 -1 17386 -9.6117351204156876e-03</internalNodes>
      <leafValues>
        -7.6227551698684692e-01 2.1233284473419189e-01</leafValues></_>
    <_>
      <internalNodes>
        0 -1 25715 -4.9099815078079700e-03</internalNodes>
      <leafValues>
        1.9417069852352142e-01 -7.6630496978759766e-01</leafValues></_></weakClassifiers></stage9>
</opencv_storage>
