<?xml version="1.0"?>
<opencv_storage>
<stage12>
  <maxWeakCount>5</maxWeakCount>
  <stageThreshold>-5.3480041027069092e-01</stageThreshold>
  <weakClassifiers>
    <_>
      <internalNodes>
        0 -1 22632 -2.9672943055629730e-02</internalNodes>
      <leafValues>
        -4.2857143282890320e-01 4.1176471114158630e-01</leafValues></_>
    <_>
      <internalNodes>
        0 -1 31655 -9.9055878818035126e-03</internalNodes>
      <leafValues>
        1.2095719575881958e-01 -1.</leafValues></_>
    <_>
      <internalNodes>
        0 -1 30783 3.4511152189224958e-03</internalNodes>
      <leafValues>
        1.7767813801765442e-01 -7.9358637332916260e-01</leafValues></_>
    <_>
      <internalNodes>
        0 -1 29609 -1.4612211380153894e-03</internalNodes>
      <leafValues>
        2.0316852629184723e-01 -5.8901226520538330e-01</leafValues></_>
    <_>
      <internalNodes>
        0 -1 12632 -1.9881855696439743e-03</internalNodes>
      <leafValues>
        4.4669800996780396e-01 -4.7710448503494263e-01</leafValues></_></weakClassifiers></stage12>
</opencv_storage>
