<?xml version="1.0"?>
<opencv_storage>
<stage14>
  <maxWeakCount>7</maxWeakCount>
  <stageThreshold>-3.6707264184951782e-01</stageThreshold>
  <weakClassifiers>
    <_>
      <internalNodes>
        0 -1 32247 7.1511196438223124e-04</internalNodes>
      <leafValues>
        -4.2608696222305298e-01 3.4545454382896423e-01</leafValues></_>
    <_>
      <internalNodes>
        0 -1 292 7.8208290040493011e-02</internalNodes>
      <leafValues>
        1.3549995422363281e-01 -8.7720376253128052e-01</leafValues></_>
    <_>
      <internalNodes>
        0 -1 20260 -3.7420116364955902e-02</internalNodes>
      <leafValues>
        -2.9125401377677917e-01 5.4902005195617676e-01</leafValues></_>
    <_>
      <internalNodes>
        0 -1 15 -7.0343485276680440e-05</internalNodes>
      <leafValues>
        -6.1340296268463135e-01 2.1762606501579285e-01</leafValues></_>
    <_>
      <internalNodes>
        0 -1 12521 -1.3671908527612686e-02</internalNodes>
      <leafValues>
        6.5940970182418823e-01 -2.1964836120605469e-01</leafValues></_>
    <_>
      <internalNodes>
        0 -1 26667 3.9649731479585171e-04</internalNodes>
      <leafValues>
        -2.6902902126312256e-01 5.2230632305145264e-01</leafValues></_>
    <_>
      <internalNodes>
        0 -1 20201 -7.9767336137592793e-04</internalNodes>
      <leafValues>
        5.8745628595352173e-01 -2.4602806568145752e-01</leafValues></_></weakClassifiers></stage14>
</opencv_storage>
